digraph Tree {
node [shape=box] ;
0 [label="X[1] <= 27.5\nentropy = 1.0\nsamples = 7841\nvalue = [3942, 3899]"] ;
1 [label="X[0] <= 23.5\nentropy = 0.777\nsamples = 3988\nvalue = [3074, 914]"] ;
0 -> 1 [labeldistance=2.5, labelangle=45, headlabel="True"] ;
2 [label="X[1] <= 13.5\nentropy = 0.984\nsamples = 1592\nvalue = [678, 914]"] ;
1 -> 2 ;
3 [label="X[0] <= 9.5\nentropy = 0.809\nsamples = 808\nvalue = [607, 201]"] ;
2 -> 3 ;
4 [label="X[1] <= 5.5\nentropy = 0.896\nsamples = 288\nvalue = [90, 198]"] ;
3 -> 4 ;
5 [label="X[0] <= 2.5\nentropy = 0.863\nsamples = 126\nvalue = [90, 36]"] ;
4 -> 5 ;
6 [label="X[1] <= 1.5\nentropy = 0.684\nsamples = 44\nvalue = [8, 36]"] ;
5 -> 6 ;
7 [label="X[0] <= 0.5\nentropy = 0.918\nsamples = 12\nvalue = [8, 4]"] ;
6 -> 7 ;
8 [label="entropy = 0.0\nsamples = 4\nvalue = [0, 4]"] ;
7 -> 8 ;
9 [label="entropy = 0.0\nsamples = 8\nvalue = [8, 0]"] ;
7 -> 9 ;
10 [label="entropy = 0.0\nsamples = 32\nvalue = [0, 32]"] ;
6 -> 10 ;
11 [label="entropy = 0.0\nsamples = 82\nvalue = [82, 0]"] ;
5 -> 11 ;
12 [label="entropy = 0.0\nsamples = 162\nvalue = [0, 162]"] ;
4 -> 12 ;
13 [label="X[0] <= 10.5\nentropy = 0.051\nsamples = 520\nvalue = [517, 3]"] ;
3 -> 13 ;
14 [label="X[1] <= 10.5\nentropy = 0.48\nsamples = 29\nvalue = [26, 3]"] ;
13 -> 14 ;
15 [label="entropy = 0.0\nsamples = 26\nvalue = [26, 0]"] ;
14 -> 15 ;
16 [label="entropy = 0.0\nsamples = 3\nvalue = [0, 3]"] ;
14 -> 16 ;
17 [label="entropy = 0.0\nsamples = 491\nvalue = [491, 0]"] ;
13 -> 17 ;
18 [label="X[0] <= 17.5\nentropy = 0.438\nsamples = 784\nvalue = [71, 713]"] ;
2 -> 18 ;
19 [label="entropy = 0.0\nsamples = 620\nvalue = [0, 620]"] ;
18 -> 19 ;
20 [label="X[1] <= 21.5\nentropy = 0.987\nsamples = 164\nvalue = [71, 93]"] ;
18 -> 20 ;
21 [label="entropy = 0.0\nsamples = 68\nvalue = [68, 0]"] ;
20 -> 21 ;
22 [label="X[0] <= 22.5\nentropy = 0.201\nsamples = 96\nvalue = [3, 93]"] ;
20 -> 22 ;
23 [label="entropy = 0.0\nsamples = 82\nvalue = [0, 82]"] ;
22 -> 23 ;
24 [label="X[1] <= 23.0\nentropy = 0.75\nsamples = 14\nvalue = [3, 11]"] ;
22 -> 24 ;
25 [label="entropy = 0.0\nsamples = 3\nvalue = [3, 0]"] ;
24 -> 25 ;
26 [label="entropy = 0.0\nsamples = 11\nvalue = [0, 11]"] ;
24 -> 26 ;
27 [label="entropy = 0.0\nsamples = 2396\nvalue = [2396, 0]"] ;
1 -> 27 ;
28 [label="X[0] <= 35.5\nentropy = 0.77\nsamples = 3853\nvalue = [868, 2985]"] ;
0 -> 28 [labeldistance=2.5, labelangle=-45, headlabel="False"] ;
29 [label="X[1] <= 30.5\nentropy = 0.096\nsamples = 2585\nvalue = [32, 2553]"] ;
28 -> 29 ;
30 [label="X[0] <= 29.0\nentropy = 0.537\nsamples = 261\nvalue = [32, 229]"] ;
29 -> 30 ;
31 [label="entropy = 0.0\nsamples = 229\nvalue = [0, 229]"] ;
30 -> 31 ;
32 [label="entropy = 0.0\nsamples = 32\nvalue = [32, 0]"] ;
30 -> 32 ;
33 [label="entropy = 0.0\nsamples = 2324\nvalue = [0, 2324]"] ;
29 -> 33 ;
34 [label="X[1] <= 38.5\nentropy = 0.925\nsamples = 1268\nvalue = [836, 432]"] ;
28 -> 34 ;
35 [label="X[0] <= 36.5\nentropy = 0.073\nsamples = 568\nvalue = [563, 5]"] ;
34 -> 35 ;
36 [label="X[1] <= 35.5\nentropy = 0.738\nsamples = 24\nvalue = [19, 5]"] ;
35 -> 36 ;
37 [label="entropy = 0.0\nsamples = 19\nvalue = [19, 0]"] ;
36 -> 37 ;
38 [label="entropy = 0.0\nsamples = 5\nvalue = [0, 5]"] ;
36 -> 38 ;
39 [label="entropy = 0.0\nsamples = 544\nvalue = [544, 0]"] ;
35 -> 39 ;
40 [label="X[0] <= 40.5\nentropy = 0.965\nsamples = 700\nvalue = [273, 427]"] ;
34 -> 40 ;
41 [label="X[0] <= 38.5\nentropy = 0.138\nsamples = 206\nvalue = [4, 202]"] ;
40 -> 41 ;
42 [label="entropy = 0.0\nsamples = 141\nvalue = [0, 141]"] ;
41 -> 42 ;
43 [label="X[1] <= 45.5\nentropy = 0.334\nsamples = 65\nvalue = [4, 61]"] ;
41 -> 43 ;
44 [label="X[1] <= 44.5\nentropy = 0.619\nsamples = 26\nvalue = [4, 22]"] ;
43 -> 44 ;
45 [label="entropy = 0.0\nsamples = 22\nvalue = [0, 22]"] ;
44 -> 45 ;
46 [label="entropy = 0.0\nsamples = 4\nvalue = [4, 0]"] ;
44 -> 46 ;
47 [label="entropy = 0.0\nsamples = 39\nvalue = [0, 39]"] ;
43 -> 47 ;
48 [label="X[1] <= 45.5\nentropy = 0.994\nsamples = 494\nvalue = [269, 225]"] ;
40 -> 48 ;
49 [label="X[0] <= 52.5\nentropy = 0.841\nsamples = 230\nvalue = [168, 62]"] ;
48 -> 49 ;
50 [label="X[0] <= 45.5\nentropy = 0.712\nsamples = 195\nvalue = [157, 38]"] ;
49 -> 50 ;
51 [label="X[0] <= 44.5\nentropy = 0.968\nsamples = 76\nvalue = [46, 30]"] ;
50 -> 51 ;
52 [label="X[1] <= 43.5\nentropy = 0.761\nsamples = 59\nvalue = [46, 13]"] ;
51 -> 52 ;
53 [label="X[1] <= 40.5\nentropy = 0.952\nsamples = 35\nvalue = [22, 13]"] ;
52 -> 53 ;
54 [label="entropy = 0.0\nsamples = 16\nvalue = [16, 0]"] ;
53 -> 54 ;
55 [label="X[1] <= 42.5\nentropy = 0.9\nsamples = 19\nvalue = [6, 13]"] ;
53 -> 55 ;
56 [label="X[0] <= 43.5\nentropy = 0.994\nsamples = 11\nvalue = [6, 5]"] ;
55 -> 56 ;
57 [label="entropy = 0.0\nsamples = 6\nvalue = [6, 0]"] ;
56 -> 57 ;
58 [label="entropy = 0.0\nsamples = 5\nvalue = [0, 5]"] ;
56 -> 58 ;
59 [label="entropy = 0.0\nsamples = 8\nvalue = [0, 8]"] ;
55 -> 59 ;
60 [label="entropy = 0.0\nsamples = 24\nvalue = [24, 0]"] ;
52 -> 60 ;
61 [label="entropy = 0.0\nsamples = 17\nvalue = [0, 17]"] ;
51 -> 61 ;
62 [label="X[1] <= 42.5\nentropy = 0.355\nsamples = 119\nvalue = [111, 8]"] ;
50 -> 62 ;
63 [label="entropy = 0.0\nsamples = 72\nvalue = [72, 0]"] ;
62 -> 63 ;
64 [label="X[1] <= 43.5\nentropy = 0.658\nsamples = 47\nvalue = [39, 8]"] ;
62 -> 64 ;
65 [label="entropy = 0.0\nsamples = 8\nvalue = [0, 8]"] ;
64 -> 65 ;
66 [label="entropy = 0.0\nsamples = 39\nvalue = [39, 0]"] ;
64 -> 66 ;
67 [label="X[1] <= 40.5\nentropy = 0.898\nsamples = 35\nvalue = [11, 24]"] ;
49 -> 67 ;
68 [label="entropy = 0.0\nsamples = 8\nvalue = [8, 0]"] ;
67 -> 68 ;
69 [label="X[1] <= 44.5\nentropy = 0.503\nsamples = 27\nvalue = [3, 24]"] ;
67 -> 69 ;
70 [label="entropy = 0.0\nsamples = 24\nvalue = [0, 24]"] ;
69 -> 70 ;
71 [label="entropy = 0.0\nsamples = 3\nvalue = [3, 0]"] ;
69 -> 71 ;
72 [label="X[1] <= 51.5\nentropy = 0.96\nsamples = 264\nvalue = [101, 163]"] ;
48 -> 72 ;
73 [label="X[1] <= 49.5\nentropy = 0.627\nsamples = 172\nvalue = [27, 145]"] ;
72 -> 73 ;
74 [label="X[0] <= 45.5\nentropy = 0.779\nsamples = 117\nvalue = [27, 90]"] ;
73 -> 74 ;
75 [label="X[0] <= 43.5\nentropy = 0.242\nsamples = 50\nvalue = [2, 48]"] ;
74 -> 75 ;
76 [label="X[0] <= 42.5\nentropy = 0.426\nsamples = 23\nvalue = [2, 21]"] ;
75 -> 76 ;
77 [label="entropy = 0.0\nsamples = 21\nvalue = [0, 21]"] ;
76 -> 77 ;
78 [label="entropy = 0.0\nsamples = 2\nvalue = [2, 0]"] ;
76 -> 78 ;
79 [label="entropy = 0.0\nsamples = 27\nvalue = [0, 27]"] ;
75 -> 79 ;
80 [label="X[0] <= 51.5\nentropy = 0.953\nsamples = 67\nvalue = [25, 42]"] ;
74 -> 80 ;
81 [label="X[0] <= 48.5\nentropy = 0.863\nsamples = 35\nvalue = [25, 10]"] ;
80 -> 81 ;
82 [label="X[0] <= 47.5\nentropy = 0.954\nsamples = 16\nvalue = [6, 10]"] ;
81 -> 82 ;
83 [label="entropy = 0.0\nsamples = 6\nvalue = [6, 0]"] ;
82 -> 83 ;
84 [label="entropy = 0.0\nsamples = 10\nvalue = [0, 10]"] ;
82 -> 84 ;
85 [label="entropy = 0.0\nsamples = 19\nvalue = [19, 0]"] ;
81 -> 85 ;
86 [label="entropy = 0.0\nsamples = 32\nvalue = [0, 32]"] ;
80 -> 86 ;
87 [label="entropy = 0.0\nsamples = 55\nvalue = [0, 55]"] ;
73 -> 87 ;
88 [label="X[0] <= 52.5\nentropy = 0.713\nsamples = 92\nvalue = [74, 18]"] ;
72 -> 88 ;
89 [label="X[0] <= 45.5\nentropy = 0.539\nsamples = 81\nvalue = [71, 10]"] ;
88 -> 89 ;
90 [label="X[0] <= 43.5\nentropy = 0.951\nsamples = 27\nvalue = [17, 10]"] ;
89 -> 90 ;
91 [label="entropy = 0.0\nsamples = 13\nvalue = [13, 0]"] ;
90 -> 91 ;
92 [label="X[1] <= 53.5\nentropy = 0.863\nsamples = 14\nvalue = [4, 10]"] ;
90 -> 92 ;
93 [label="entropy = 0.0\nsamples = 7\nvalue = [0, 7]"] ;
92 -> 93 ;
94 [label="X[0] <= 44.5\nentropy = 0.985\nsamples = 7\nvalue = [4, 3]"] ;
92 -> 94 ;
95 [label="entropy = 0.0\nsamples = 4\nvalue = [4, 0]"] ;
94 -> 95 ;
96 [label="entropy = 0.0\nsamples = 3\nvalue = [0, 3]"] ;
94 -> 96 ;
97 [label="entropy = 0.0\nsamples = 54\nvalue = [54, 0]"] ;
89 -> 97 ;
98 [label="X[1] <= 53.5\nentropy = 0.845\nsamples = 11\nvalue = [3, 8]"] ;
88 -> 98 ;
99 [label="entropy = 0.0\nsamples = 8\nvalue = [0, 8]"] ;
98 -> 99 ;
100 [label="entropy = 0.0\nsamples = 3\nvalue = [3, 0]"] ;
98 -> 100 ;
}
